{"learner":{"attributes":{"scikit_learn":"{\"_estimator_type\": \"classifier\"}"},"feature_names":["sepal length (cm)","sepal width (cm)","petal length (cm)","petal width (cm)"],"feature_types":["float","float","float","float"],"gradient_booster":{"model":{"gbtree_model_param":{"num_parallel_tree":"1","num_trees":"60"},"iteration_indptr":[0,3,6,9,12,15,18,21,24,27,30,33,36,39,42,45,48,51,54,57,60],"tree_info":[0,1,2,0,1,2,0,1,2,0,1,2,0,1,2,0,1,2,0,1,2,0,1,2,0,1,2,0,1,2,0,1,2,0,1,2,0,1,2,0,1,2,0,1,2,0,1,2,0,1,2,0,1,2,0,1,2,0,1,2],"trees":[{"base_weights":[-6.1696704E-2,1.3919999E-2,-7.2527477E-3],"categories":[],"categories_nodes":[],"categories_segments":[],"categories_sizes":[],"default_left":[0,0,0],"id":0,"left_children":[1,-1,-1],"loss_changes":[4.270352E1,0E0,0E0],"parents":[2147483647,0,0],"right_children":[2,-1,-1],"split_conditions":[3E0,1.3919999E-2,-7.2527477E-3],"split_indices":[2,0,0],"split_type":[0,0,0],"sum_hessian":[4.222222E1,1.2888888E1,2.9333332E1],"tree_param":{"num_deleted":"0","num_feature":"4","num_nodes":"3","size_leaf_vector":"1"}},{"base_weights":[-4.724414E-2,-7.0469803E-3,3.6099583E-1,1.255814E0,-6.198348E-1,1.3846154E-2,-2.5544847E-10,-2.5544847E-10,-6.8807346E-3],"categories":[],"categories_nodes":[],"categories_segments":[],"categories_sizes":[],"default_left":[0,0,0,0,0,0,0,0,0],"id":1,"left_children":[1,-1,3,5,7,-1,-1,-1,-1],"loss_changes":[1.1616614E1,0E0,2.4280313E1,2.3184261E0,5.6865597E-1,0E0,0E0,0E0,0E0],"parents":[2147483647,0,0,2,2,3,3,4,4],"right_children":[2,-1,4,6,8,-1,-1,-1,-1],"split_conditions":[3E0,-7.0469803E-3,1.8E0,5.1E0,6E0,1.3846154E-2,-2.5544847E-10,-2.5544847E-10,-6.8807346E-3],"split_indices":[2,0,3,2,0,0,0,0,0],"split_type":[0,0,0,0,0,0,0,0,0],"sum_hessian":[4.1333332E1,1.5555554E1,2.5777777E1,1.3333332E1,1.2444444E1,1.1999999E1,1.3333333E0,1.3333333E0,1.1111111E1],"tree_param":{"num_deleted":"0","num_feature":"4","num_nodes":"9","size_leaf_vector":"1"}},{"base_weights":[-1.2467537E-1,-6.3321805E-1,1.2857143E0,-7.2527477E-3,5.9999996E-3,4.285714E-3,1.3548387E-2],"categories":[],"categories_nodes":[],"categories_segments":[],"categories_sizes":[],"default_left":[0,0,0,0,0,0,0],"id":2,"left_children":[1,3,5,-1,-1,-1,-1],"loss_changes":[3.1496212E1,4.080611E0,1.1059761E-1,0E0,0E0,0E0,0E0],"parents":[2147483647,0,0,1,1,2,2],"right_children":[2,4,6,-1,-1,-1,-1],"split_conditions":[5.1E0,1.8E0,6.1E0,-7.2527477E-3,5.9999996E-3,4.285714E-3,1.3548387E-2],"split_indices":[2,3,0,0,0,0,0],"split_type":[0,0,0,0,0,0,0],"sum_hessian":[4.1777775E1,3.1111109E1,1.0666666E1,2.9333332E1,1.7777777E0,1.3333333E0,9.333333E0],"tree_param":{"num_deleted":"0","num_feature":"4","num_nodes":"7","size_leaf_vector":"1"}},{"base_weights":[7.4465424E-3,1.3853469E-2,-7.2226194E-3],"categories":[],"categories_nodes":[],"categories_segments":[],"categories_sizes":[],"default_left":[0,0,0],"id":3,"left_children":[1,-1,-1],"loss_changes":[4.5798504E1,0E0,0E0],"parents":[2147483647,0,0],"right_children":[2,-1,-1],"split_conditions":[3E0,1.3853469E-2,-7.2226194E-3],"split_indices":[2,0,0],"split_type":[0,0,0],"sum_hessian":[4.3554405E1,1.4768577E1,2.878583E1],"tree_param":{"num_deleted":"0","num_feature":"4","num_nodes":"3","size_leaf_vector":"1"}},{"base_weights":[-4.584629E-2,-7.008611E-3,3.2343256E-1,1.253855E0,-6.9563948E-3,1.3733086E-2,4.699429E-6],"categories":[],"categories_nodes":[],"categories_segments":[],"categories_sizes":[],"default_left":[0,0,0,0,0,0,0],"id":4,"left_children":[1,-1,3,5,-1,-1,-1],"loss_changes":[1.0788764E1,0E0,2.7997208E1,2.2917652E0,0E0,0E0,0E0],"parents":[2147483647,0,0,2,2,3,3],"right_children":[2,-1,4,6,-1,-1,-1],"split_conditions":[3E0,-7.008611E-3,1.8E0,5.1E0,-6.9563948E-3,1.3733086E-2,4.699429E-6],"split_indices":[2,0,3,2,0,0,0],"split_type":[0,0,0,0,0,0,0],"sum_hessian":[4.2666058E1,1.5058269E1,2.760779E1,1.4311169E1,1.3296621E1,1.2978568E1,1.3326004E0],"tree_param":{"num_deleted":"0","num_feature":"4","num_nodes":"7","size_leaf_vector":"1"}},{"base_weights":[-2.3142818E-2,-7.197956E-3,1.1456527E0,2.699901E-1,1.2987896E-2,-1.384123E-5,4.256684E-3],"categories":[],"categories_nodes":[],"categories_segments":[],"categories_sizes":[],"default_left":[0,0,0,0,0,0,0],"id":5,"left_children":[1,-1,3,5,-1,-1,-1],"loss_changes":[3.5281723E1,0E0,1.8202896E0,1.5573052E-1,0E0,0E0,0E0],"parents":[2147483647,0,0,2,2,3,3],"right_children":[2,-1,4,6,-1,-1,-1],"split_conditions":[4.8E0,-7.197956E-3,1.7E0,2.8E0,1.2987896E-2,-1.384123E-5,4.256684E-3],"split_indices":[2,0,3,1,0,0,0],"split_type":[0,0,0,0,0,0,0],"sum_hessian":[4.1317856E1,2.612837E1,1.5189486E1,2.6722386E0,1.2517247E1,1.3354418E0,1.3367968E0],"tree_param":{"num_deleted":"0","num_feature":"4","num_nodes":"7","size_leaf_vector":"1"}},{"base_weights":[-3.0800857E-2,1.3583458E-2,-7.193216E-3],"categories":[],"categories_nodes":[],"categories_segments":[],"categories_sizes":[],"default_left":[0,0,0],"id":6,"left_children":[1,-1,-1],"loss_changes":[4.1874E1,0E0,0E0],"parents":[2147483647,0,0],"right_children":[2,-1,-1],"split_conditions":[3E0,1.3583458E-2,-7.193216E-3],"split_indices":[2,0,0],"split_type":[0,0,0],"sum_hessian":[4.1758785E1,1.3516103E1,2.8242683E1],"tree_param":{"num_deleted":"0","num_feature":"4","num_nodes":"3","size_leaf_vector":"1"}},{"base_weights":[-3.219417E-2,3.0298814E-1,-6.9303284E-3,-6.9083916E-3,1.1742727E0,1.3521684E-2,-1.2013733E-3],"categories":[],"categories_nodes":[],"categories_segments":[],"categories_sizes":[],"default_left":[0,0,0,0,0,0,0],"id":7,"left_children":[1,3,-1,-1,5,-1,-1],"loss_changes":[9.388505E0,2.5220161E1,0E0,0E0,3.7065048E0,0E0,0E0],"parents":[2147483647,0,0,1,1,4,4],"right_children":[2,4,-1,-1,6,-1,-1],"split_conditions":[1.8E0,3E0,-6.9303284E-3,-6.9083916E-3,5.1E0,1.3521684E-2,-1.2013733E-3],"split_indices":[3,2,0,0,2,0,0],"split_type":[0,0,0,0,0,0,0],"sum_hessian":[4.0437763E1,2.7188875E1,1.3248889E1,1.2797995E1,1.439088E1,1.2612829E1,1.7780509E0],"tree_param":{"num_deleted":"0","num_feature":"4","num_nodes":"7","size_leaf_vector":"1"}},{"base_weights":[-3.1587522E-2,-6.501221E-1,1.2817906E-2,-7.177688E-3,4.2106593E-3],"categories":[],"categories_nodes":[],"categories_segments":[],"categories_sizes":[],"default_left":[0,0,0,0,0],"id":8,"left_children":[1,3,-1,-1,-1],"loss_changes":[3.4482513E1,2.3908014E0,0E0,0E0,0E0],"parents":[2147483647,0,0,1,1],"right_children":[2,4,-1,-1,-1],"split_conditions":[1.8E0,5.1E0,1.2817906E-2,-7.177688E-3,4.2106593E-3],"split_indices":[3,2,0,0,0],"split_type":[0,0,0,0,0],"sum_hessian":[4.042103E1,2.7822868E1,1.2598162E1,2.6480526E1,1.342342E0],"tree_param":{"num_deleted":"0","num_feature":"4","num_nodes":"5","size_leaf_vector":"1"}},{"base_weights":[-5.357086E-2,1.3375495E-2,-7.1716397E-3],"categories":[],"categories_nodes":[],"categories_segments":[],"categories_sizes":[],"default_left":[0,0,0],"id":9,"left_children":[1,-1,-1],"loss_changes":[4.04054E1,0E0,0E0],"parents":[2147483647,0,0],"right_children":[2,-1,-1],"split_conditions":[3E0,1.3375495E-2,-7.1716397E-3],"split_indices":[2,0,0],"split_type":[0,0,0],"sum_hessian":[4.173052E1,1.3149341E1,2.8581177E1],"tree_param":{"num_deleted":"0","num_feature":"4","num_nodes":"3","size_leaf_vector":"1"}},{"base_weights":[6.510021E-2,4.1723797E-1,-6.308028E-1,-6.8831434E-3,1.2503859E0,-1.1330377E-3,-6.8890355E-3,1.3520064E-2,-1.972061E-6],"categories":[],"categories_nodes":[],"categories_segments":[],"categories_sizes":[],"default_left":[0,0,0,0,0,0,0,0,0],"id":10,"left_children":[1,3,5,-1,7,-1,-1,-1,-1],"loss_changes":[1.1297268E1,2.8953945E1,3.887987E-1,0E0,2.2557507E0,0E0,0E0,0E0,0E0],"parents":[2147483647,0,0,1,1,2,2,4,4],"right_children":[2,4,6,-1,8,-1,-1,-1,-1],"split_conditions":[1.8E0,3E0,5E0,-6.8831434E-3,5.1E0,-1.1330377E-3,-6.8890355E-3,1.3520064E-2,-1.972061E-6],"split_indices":[3,2,2,0,2,0,0,0,0],"split_type":[0,0,0,0,0,0,0,0,0],"sum_hessian":[4.402716E1,2.9500092E1,1.4527069E1,1.275224E1,1.674785E1,1.7641397E0,1.276293E1,1.5414213E1,1.3336368E0],"tree_param":{"num_deleted":"0","num_feature":"4","num_nodes":"9","size_leaf_vector":"1"}},{"base_weights":[-1.0555078E-1,-6.5525573E-1,1.2523742E-2,-7.1745645E-3,4.223581E-3],"categories":[],"categories_nodes":[],"categories_segments":[],"categories_sizes":[],"default_left":[0,0,0,0,0],"id":11,"left_children":[1,3,-1,-1,-1],"loss_changes":[3.301574E1,2.404932E0,0E0,0E0,0E0],"parents":[2147483647,0,0,1,1],"right_children":[2,4,-1,-1,-1],"split_conditions":[1.8E0,5E0,1.2523742E-2,-7.1745645E-3,4.223581E-3],"split_indices":[3,2,0,0,0],"split_type":[0,0,0,0,0],"sum_hessian":[4.2130505E1,3.0358475E1,1.177203E1,2.9017763E1,1.3407116E0],"tree_param":{"num_deleted":"0","num_feature":"4","num_nodes":"5","size_leaf_vector":"1"}},{"base_weights":[-2.8573098E-2,1.329247E-2,-7.1561453E-3],"categories":[],"categories_nodes":[],"categories_segments":[],"categories_sizes":[],"default_left":[0,0,0],"id":12,"left_children":[1,-1,-1],"loss_changes":[4.3290684E1,0E0,0E0],"parents":[2147483647,0,0],"right_children":[2,-1,-1],"split_conditions":[3E0,1.329247E-2,-7.1561453E-3],"split_indices":[2,0,0],"split_type":[0,0,0],"sum_hessian":[4.4385803E1,1.4598877E1,2.9786926E1],"tree_param":{"num_deleted":"0","num_feature":"4","num_nodes":"3","size_leaf_vector":"1"}},{"base_weights":[3.865828E-2,-6.8906145E-3,4.179698E-1,1.3262874E-2,-5.4986495E-1,9.785789E-4,-6.7888475E-3],"categories":[],"categories_nodes":[],"categories_segments":[],"categories_sizes":[],"default_left":[0,0,0,0,0,0,0],"id":13,"left_children":[1,-1,3,-1,5,-1,-1],"loss_changes":[1.1731583E1,0E0,2.5234154E1,0E0,1.2533026E0,0E0,0E0],"parents":[2147483647,0,0,2,2,4,4],"right_children":[2,-1,4,-1,6,-1,-1],"split_conditions":[3E0,-6.8906145E-3,4.9E0,1.3262874E-2,1.8E0,9.785789E-4,-6.7888475E-3],"split_indices":[2,0,2,0,3,0,0],"split_type":[0,0,0,0,0,0,0],"sum_hessian":[4.045735E1,1.3582443E1,2.6874908E1,1.3672672E1,1.3202237E1,2.2330592E0,1.0969178E1],"tree_param":{"num_deleted":"0","num_feature":"4","num_nodes":"7","size_leaf_vector":"1"}},{"base_weights":[1.4498071E-2,-6.503947E-1,1.2737693E-2,-7.142108E-3,4.1519166E-3],"categories":[],"categories_nodes":[],"categories_segments":[],"categories_sizes":[],"default_left":[0,0,0,0,0],"id":14,"left_children":[1,3,-1,-1,-1],"loss_changes":[3.8855995E1,2.3628178E0,0E0,0E0,0E0],"parents":[2147483647,0,0,1,1],"right_children":[2,4,-1,-1,-1],"split_conditions":[1.8E0,5.1E0,1.2737693E-2,-7.142108E-3,4.1519166E-3],"split_indices":[3,2,0,0,0],"split_type":[0,0,0,0,0],"sum_hessian":[4.441794E1,2.9385805E1,1.5032132E1,2.8036495E1,1.349309E0],"tree_param":{"num_deleted":"0","num_feature":"4","num_nodes":"5","size_leaf_vector":"1"}},{"base_weights":[5.6580205E-2,1.3217909E-2,-7.116399E-3],"categories":[],"categories_nodes":[],"categories_segments":[],"categories_sizes":[],"default_left":[0,0,0],"id":15,"left_children":[1,-1,-1],"loss_changes":[4.511733E1,0E0,0E0],"parents":[2147483647,0,0],"right_children":[2,-1,-1],"split_conditions":[3E0,1.3217909E-2,-7.116399E-3],"split_indices":[2,0,0],"split_type":[0,0,0],"sum_hessian":[4.4451126E1,1.652118E1,2.7929945E1],"tree_param":{"num_deleted":"0","num_feature":"4","num_nodes":"3","size_leaf_vector":"1"}},{"base_weights":[6.222549E-3,-6.88046E-3,3.6132488E-1,1.2500395E0,-5.5968696E-1,1.3001872E-2,4.1999607E-3,2.233486E-3,-6.8310574E-3],"categories":[],"categories_nodes":[],"categories_segments":[],"categories_sizes":[],"default_left":[0,0,0,0,0,0,0,0,0],"id":16,"left_children":[1,-1,3,5,7,-1,-1,-1,-1],"loss_changes":[1.0903229E1,0E0,2.4639929E1,8.639145E-2,1.6074033E0,0E0,0E0,0E0,0E0],"parents":[2147483647,0,0,2,2,3,3,4,4],"right_children":[2,-1,4,6,8,-1,-1,-1,-1],"split_conditions":[3E0,-6.88046E-3,4.9E0,1.6E0,1.6E0,1.3001872E-2,4.1999607E-3,2.233486E-3,-6.8310574E-3],"split_indices":[2,0,2,3,3,0,0,0,0],"split_type":[0,0,0,0,0,0,0,0,0],"sum_hessian":[4.2217236E1,1.3968842E1,2.8248396E1,1.4194454E1,1.4053941E1,1.2851605E1,1.3428494E0,1.8032802E0,1.2250661E1],"tree_param":{"num_deleted":"0","num_feature":"4","num_nodes":"9","size_leaf_vector":"1"}},{"base_weights":[1.4465485E-2,-6.4792126E-1,1.2584539E-2,-7.1174856E-3,4.1259164E-3],"categories":[],"categories_nodes":[],"categories_segments":[],"categories_sizes":[],"default_left":[0,0,0,0,0],"id":17,"left_children":[1,3,-1,-1,-1],"loss_changes":[3.8226387E1,2.343751E0,0E0,0E0,0E0],"parents":[2147483647,0,0,1,1],"right_children":[2,4,-1,-1,-1],"split_conditions":[1.8E0,5.1E0,1.2584539E-2,-7.1174856E-3,4.1259164E-3],"split_indices":[3,2,0,0,0],"split_type":[0,0,0,0,0],"sum_hessian":[4.440163E1,2.9286566E1,1.5115065E1,2.79342E1,1.3523657E0],"tree_param":{"num_deleted":"0","num_feature":"4","num_nodes":"5","size_leaf_vector":"1"}},{"base_weights":[-4.4145916E-2,1.2905437E-2,-7.09935E-3],"categories":[],"categories_nodes":[],"categories_segments":[],"categories_sizes":[],"default_left":[0,0,0],"id":18,"left_children":[1,-1,-1],"loss_changes":[3.9608715E1,0E0,0E0],"parents":[2147483647,0,0],"right_children":[2,-1,-1],"split_conditions":[3E0,1.2905437E-2,-7.09935E-3],"split_indices":[2,0,0],"split_type":[0,0,0],"sum_hessian":[4.2542156E1,1.384636E1,2.8695795E1],"tree_param":{"num_deleted":"0","num_feature":"4","num_nodes":"3","size_leaf_vector":"1"}},{"base_weights":[-3.2224808E-2,6.380473E-1,-4.375426E-1,1.0379306E0,-5.7274858E-3,-6.8083596E-3,-1.4742543E-1,1.1683057E-2,-1.6029811E-5,7.617646E-3,-6.529423E-3],"categories":[],"categories_nodes":[],"categories_segments":[],"categories_sizes":[],"default_left":[0,0,0,0,0,0,0,0,0,0,0],"id":19,"left_children":[1,3,5,7,-1,-1,9,-1,-1,-1,-1],"loss_changes":[1.1152505E1,8.093889E0,1.7019496E0,1.628108E0,0E0,0E0,6.4369087E0,0E0,0E0,0E0,0E0],"parents":[2147483647,0,0,1,1,2,2,3,3,6,6],"right_children":[2,4,6,8,-1,-1,10,-1,-1,-1,-1],"split_conditions":[3E0,1.7E0,3E0,5E0,-5.7274858E-3,-6.8083596E-3,5.1E0,1.1683057E-2,-1.6029811E-5,7.617646E-3,-6.529423E-3],"split_indices":[1,3,2,2,0,0,2,0,0,0,0],"split_type":[0,0,0,0,0,0,0,0,0,0,0],"sum_hessian":[3.902357E1,1.44889965E1,2.4534575E1,1.0999138E1,3.4898586E0,1.2611642E1,1.1922933E1,9.663319E0,1.3358192E0,4.0792875E0,7.8436456E0],"tree_param":{"num_deleted":"0","num_feature":"4","num_nodes":"11","size_leaf_vector":"1"}},{"base_weights":[2.1362709E-2,-6.441569E-1,1.2419984E0,-7.089209E-3,4.1020955E-3,3.915544E-3,1.2945381E-2],"categories":[],"categories_nodes":[],"categories_segments":[],"categories_sizes":[],"default_left":[0,0,0,0,0,0,0],"id":20,"left_children":[1,3,5,-1,-1,-1,-1],"loss_changes":[3.731939E1,2.3223686E0,2.1712685E-1,0E0,0E0,0E0,0E0],"parents":[2147483647,0,0,1,1,2,2],"right_children":[2,4,6,-1,-1,-1,-1],"split_conditions":[1.8E0,5.1E0,5E0,-7.089209E-3,4.1020955E-3,3.915544E-3,1.2945381E-2],"split_indices":[3,2,2,0,0,0,0],"split_type":[0,0,0,0,0,0,0],"sum_hessian":[4.39548E1,2.8751226E1,1.5203575E1,2.7396069E1,1.3551581E0,1.3764215E0,1.3827153E1],"tree_param":{"num_deleted":"0","num_feature":"4","num_nodes":"7","size_leaf_vector":"1"}},{"base_weights":[-4.695066E-2,1.2687313E-2,-7.060907E-3],"categories":[],"categories_nodes":[],"categories_segments":[],"categories_sizes":[],"default_left":[0,0,0],"id":21,"left_children":[1,-1,-1],"loss_changes":[3.632513E1,0E0,0E0],"parents":[2147483647,0,0],"right_children":[2,-1,-1],"split_conditions":[3E0,1.2687313E-2,-7.060907E-3],"split_indices":[2,0,0],"split_type":[0,0,0],"sum_hessian":[3.985393E1,1.2993439E1,2.686049E1],"tree_param":{"num_deleted":"0","num_feature":"4","num_nodes":"3","size_leaf_vector":"1"}},{"base_weights":[2.532066E-2,-6.817829E-3,4.3515667E-1,1.1578501E0,-5.778668E-1,1.2689735E-2,1.0110624E-4,1.1765952E-4,-6.590129E-3],"categories":[],"categories_nodes":[],"categories_segments":[],"categories_sizes":[],"default_left":[0,0,0,0,0,0,0,0,0],"id":22,"left_children":[1,-1,3,5,7,-1,-1,-1,-1],"loss_changes":[1.1388493E1,0E0,1.8855253E1,1.8787136E0,5.3454256E-1,0E0,0E0,0E0,0E0],"parents":[2147483647,0,0,2,2,3,3,4,4],"right_children":[2,-1,4,6,8,-1,-1,-1,-1],"split_conditions":[3E0,-6.817829E-3,5E0,1.7E0,6.3E0,1.2689735E-2,1.0110624E-4,1.1765952E-4,-6.590129E-3],"split_indices":[2,0,2,3,0,0,0,0,0],"split_type":[0,0,0,0,0,0,0,0,0],"sum_hessian":[3.727448E1,1.3433561E1,2.3840916E1,1.383093E1,1.0009986E1,1.2513732E1,1.3171983E0,1.3143702E0,8.695616E0],"tree_param":{"num_deleted":"0","num_feature":"4","num_nodes":"9","size_leaf_vector":"1"}},{"base_weights":[1.624021E-2,-7.0286533E-3,1.0705975E0,1.5494634E-1,1.2711585E-2,-4.2013736E-3,5.7302676E-3],"categories":[],"categories_nodes":[],"categories_segments":[],"categories_sizes":[],"default_left":[0,0,0,0,0,0,0],"id":23,"left_children":[1,-1,3,5,-1,-1,-1],"loss_changes":[3.1109907E1,0E0,2.857298E0,1.2330453E0,0E0,0E0,0E0],"parents":[2147483647,0,0,2,2,3,3],"right_children":[2,-1,4,6,-1,-1,-1],"split_conditions":[4.9E0,-7.0286533E-3,1.8E0,5.1E0,1.2711585E-2,-4.2013736E-3,5.7302676E-3],"split_indices":[2,0,3,2,0,0,0],"split_type":[0,0,0,0,0,0,0],"sum_hessian":[3.9039112E1,2.3407686E1,1.5631424E1,3.1271484E0,1.2504275E1,1.3143272E0,1.8128211E0],"tree_param":{"num_deleted":"0","num_feature":"4","num_nodes":"7","size_leaf_vector":"1"}},{"base_weights":[1.3614104E-2,1.2699312E-2,-7.051753E-3],"categories":[],"categories_nodes":[],"categories_segments":[],"categories_sizes":[],"default_left":[0,0,0],"id":24,"left_children":[1,-1,-1],"loss_changes":[4.1838505E1,0E0,0E0],"parents":[2147483647,0,0],"right_children":[2,-1,-1],"split_conditions":[3E0,1.2699312E-2,-7.051753E-3],"split_indices":[2,0,0],"split_type":[0,0,0],"sum_hessian":[4.433969E1,1.5857249E1,2.848244E1],"tree_param":{"num_deleted":"0","num_feature":"4","num_nodes":"3","size_leaf_vector":"1"}},{"base_weights":[-3.899465E-2,-6.808373E-3,3.0269793E-1,1.148915E0,-6.7859483E-3,1.2584641E-2,-1.46867405E-5],"categories":[],"categories_nodes":[],"categories_segments":[],"categories_sizes":[],"default_left":[0,0,0,0,0,0,0],"id":25,"left_children":[1,-1,3,5,-1,-1,-1],"loss_changes":[9.363446E0,0E0,2.3981373E1,1.9393768E0,0E0,0E0,0E0],"parents":[2147483647,0,0,2,2,3,3],"right_children":[2,-1,4,6,-1,-1,-1],"split_conditions":[3E0,-6.808373E-3,1.8E0,5.1E0,-6.7859483E-3,1.2584641E-2,-1.46867405E-5],"split_indices":[2,0,3,2,0,0,0],"split_type":[0,0,0,0,0,0,0],"sum_hessian":[4.075477E1,1.38139E1,2.694087E1,1.4374346E1,1.25665245E1,1.3038737E1,1.3356084E0],"tree_param":{"num_deleted":"0","num_feature":"4","num_nodes":"7","size_leaf_vector":"1"}},{"base_weights":[1.640331E-3,-7.0407307E-3,1.0894098E0,3.6752748E-1,1.2674193E-2,-4.193061E-3,7.5299195E-3],"categories":[],"categories_nodes":[],"categories_segments":[],"categories_sizes":[],"default_left":[0,0,0,0,0,0,0],"id":26,"left_children":[1,-1,3,5,-1,-1,-1],"loss_changes":[3.6201427E1,0E0,1.9186344E0,1.856164E0,0E0,0E0,0E0],"parents":[2147483647,0,0,2,2,3,3],"right_children":[2,-1,4,6,-1,-1,-1],"split_conditions":[4.8E0,-7.0407307E-3,5.1E0,1.8E0,1.2674193E-2,-4.193061E-3,7.5299195E-3],"split_indices":[2,0,2,3,0,0,0],"split_type":[0,0,0,0,0,0,0],"sum_hessian":[4.515937E1,2.7603655E1,1.7555716E1,4.078958E0,1.3476758E1,1.3123384E0,2.7666197E0],"tree_param":{"num_deleted":"0","num_feature":"4","num_nodes":"7","size_leaf_vector":"1"}},{"base_weights":[-3.0285944E-4,1.2474475E-2,-7.0117526E-3],"categories":[],"categories_nodes":[],"categories_segments":[],"categories_sizes":[],"default_left":[0,0,0],"id":27,"left_children":[1,-1,-1],"loss_changes":[3.776281E1,0E0,0E0],"parents":[2147483647,0,0],"right_children":[2,-1,-1],"split_conditions":[3E0,1.2474475E-2,-7.0117526E-3],"split_indices":[2,0,0],"split_type":[0,0,0],"sum_hessian":[4.1181297E1,1.4531422E1,2.6649876E1],"tree_param":{"num_deleted":"0","num_feature":"4","num_nodes":"3","size_leaf_vector":"1"}},{"base_weights":[4.1287314E-2,3.6750498E-1,-6.7859767E-3,-6.7552007E-3,1.1245763E0,1.2591796E-2,-1.0952567E-3],"categories":[],"categories_nodes":[],"categories_segments":[],"categories_sizes":[],"default_left":[0,0,0,0,0,0,0],"id":28,"left_children":[1,3,-1,-1,5,-1,-1],"loss_changes":[1.0802334E1,2.569066E1,0E0,0E0,3.239132E0,0E0,0E0],"parents":[2147483647,0,0,1,1,4,4],"right_children":[2,4,-1,-1,6,-1,-1],"split_conditions":[5.1E0,3E0,-6.7859767E-3,-6.7552007E-3,1.8E0,1.2591796E-2,-1.0952567E-3],"split_indices":[2,2,0,0,3,0,0],"split_type":[0,0,0,0,0,0,0],"sum_hessian":[4.39369E1,3.0572424E1,1.3364475E1,1.290323E1,1.7669195E1,1.5913221E1,1.7559736E0],"tree_param":{"num_deleted":"0","num_feature":"4","num_nodes":"7","size_leaf_vector":"1"}},{"base_weights":[-2.8438691E-2,-6.693556E-1,1.2500333E-2,-7.0179407E-3,5.1102408E-5],"categories":[],"categories_nodes":[],"categories_segments":[],"categories_sizes":[],"default_left":[0,0,0,0,0],"id":29,"left_children":[1,3,-1,-1,-1],"loss_changes":[3.5701862E1,6.3791466E-1,0E0,0E0,0E0],"parents":[2147483647,0,0,1,1],"right_children":[2,4,-1,-1,-1],"split_conditions":[1.8E0,6.8E0,1.2500333E-2,-7.0179407E-3,5.1102408E-5],"split_indices":[3,0,0,0,0],"split_type":[0,0,0,0,0],"sum_hessian":[4.1549904E1,2.7993027E1,1.3556878E1,2.666982E1,1.3232061E0],"tree_param":{"num_deleted":"0","num_feature":"4","num_nodes":"5","size_leaf_vector":"1"}},{"base_weights":[5.1681515E-2,1.2378808E-2,-6.9749495E-3],"categories":[],"categories_nodes":[],"categories_segments":[],"categories_sizes":[],"default_left":[0,0,0],"id":30,"left_children":[1,-1,-1],"loss_changes":[3.8011333E1,0E0,0E0],"parents":[2147483647,0,0],"right_children":[2,-1,-1],"split_conditions":[3E0,1.2378808E-2,-6.9749495E-3],"split_indices":[2,0,0],"split_type":[0,0,0],"sum_hessian":[4.0801575E1,1.554162E1,2.5259954E1],"tree_param":{"num_deleted":"0","num_feature":"4","num_nodes":"3","size_leaf_vector":"1"}},{"base_weights":[5.6912698E-2,-6.6970414E-3,3.6213404E-1,1.0964755E0,-6.046357E-1,1.238249E-2,-1.1884237E-3,-1.8853247E-3,-6.656215E-3],"categories":[],"categories_nodes":[],"categories_segments":[],"categories_sizes":[],"default_left":[0,0,0,0,0,0,0,0,0],"id":31,"left_children":[1,-1,3,5,7,-1,-1,-1,-1],"loss_changes":[9.723372E0,0E0,2.2495583E1,3.21974E0,2.2774887E-1,0E0,0E0,0E0,0E0],"parents":[2147483647,0,0,2,2,3,3,4,4],"right_children":[2,-1,4,6,8,-1,-1,-1,-1],"split_conditions":[3E0,-6.6970414E-3,1.7E0,5E0,6E0,1.238249E-2,-1.1884237E-3,-1.8853247E-3,-6.656215E-3],"split_indices":[2,0,3,2,0,0,0,0,0],"split_type":[0,0,0,0,0,0,0,0,0],"sum_hessian":[4.1749092E1,1.1996291E1,2.97528E1,1.6832764E1,1.2920037E1,1.505737E1,1.7753928E0,2.1745565E0,1.0745481E1],"tree_param":{"num_deleted":"0","num_feature":"4","num_nodes":"9","size_leaf_vector":"1"}},{"base_weights":[-2.7714116E-2,-6.9945613E-3,1.0448579E0,1.5159339E-1,1.2318734E-2,-4.1615125E-3,5.606696E-3],"categories":[],"categories_nodes":[],"categories_segments":[],"categories_sizes":[],"default_left":[0,0,0,0,0,0,0],"id":32,"left_children":[1,-1,3,5,-1,-1,-1],"loss_changes":[3.2326218E1,0E0,2.7014198E0,1.1932906E0,0E0,0E0,0E0],"parents":[2147483647,0,0,2,2,3,3],"right_children":[2,-1,4,6,-1,-1,-1],"split_conditions":[4.9E0,-6.9945613E-3,1.8E0,5.1E0,1.2318734E-2,-4.1615125E-3,5.606696E-3],"split_indices":[2,0,3,2,0,0,0],"split_type":[0,0,0,0,0,0,0],"sum_hessian":[4.2852535E1,2.6563763E1,1.6288773E1,3.1333206E0,1.3155452E1,1.3049393E0,1.8283813E0],"tree_param":{"num_deleted":"0","num_feature":"4","num_nodes":"7","size_leaf_vector":"1"}},{"base_weights":[3.1185845E-2,1.2160841E-2,-6.9369394E-3],"categories":[],"categories_nodes":[],"categories_segments":[],"categories_sizes":[],"default_left":[0,0,0],"id":33,"left_children":[1,-1,-1],"loss_changes":[3.440393E1,0E0,0E0],"parents":[2147483647,0,0],"right_children":[2,-1,-1],"split_conditions":[3E0,1.2160841E-2,-6.9369394E-3],"split_indices":[2,0,0],"split_type":[0,0,0],"sum_hessian":[3.8073235E1,1.4193959E1,2.3879272E1],"tree_param":{"num_deleted":"0","num_feature":"4","num_nodes":"3","size_leaf_vector":"1"}},{"base_weights":[1.01208456E-1,-6.7077647E-3,4.5336226E-1,1.1872181E0,-5.9395444E-1,1.2254672E-2,4.12377E-3,1.5242962E-4,-6.63366E-3],"categories":[],"categories_nodes":[],"categories_segments":[],"categories_sizes":[],"default_left":[0,0,0,0,0,0,0,0,0],"id":34,"left_children":[1,-1,3,5,7,-1,-1,-1,-1],"loss_changes":[1.1931647E1,0E0,2.3738592E1,2.677536E-2,5.6041E-1,0E0,0E0,0E0,0E0],"parents":[2147483647,0,0,2,2,3,3,4,4],"right_children":[2,-1,4,6,8,-1,-1,-1,-1],"split_conditions":[3E0,-6.7077647E-3,1.8E0,5E0,6E0,1.2254672E-2,4.12377E-3,1.5242962E-4,-6.63366E-3],"split_indices":[2,0,3,2,0,0,0,0,0],"split_type":[0,0,0,0,0,0,0,0,0],"sum_hessian":[4.1770737E1,1.2801891E1,2.8968845E1,1.695493E1,1.2013916E1,1.5603127E1,1.3518033E0,1.308668E0,1.0705248E1],"tree_param":{"num_deleted":"0","num_feature":"4","num_nodes":"9","size_leaf_vector":"1"}},{"base_weights":[-2.6417688E-2,-6.3511246E-1,1.1183395E0,-6.973852E-3,3.7831774E-3,3.824491E-3,1.2121186E-2],"categories":[],"categories_nodes":[],"categories_segments":[],"categories_sizes":[],"default_left":[0,0,0,0,0,0,0],"id":35,"left_children":[1,3,5,-1,-1,-1,-1],"loss_changes":[3.2153946E1,2.1633081E0,6.424732E-1,0E0,0E0,0E0,0E0],"parents":[2147483647,0,0,1,1,2,2],"right_children":[2,4,6,-1,-1,-1,-1],"split_conditions":[5E0,1.7E0,1.8E0,-6.973852E-3,3.7831774E-3,3.824491E-3,1.2121186E-2],"split_indices":[2,3,3,0,0,0,0],"split_type":[0,0,0,0,0,0,0],"sum_hessian":[4.4125328E1,2.9098278E1,1.5027052E1,2.7707573E1,1.3907046E0,2.2725346E0,1.2754517E1],"tree_param":{"num_deleted":"0","num_feature":"4","num_nodes":"7","size_leaf_vector":"1"}},{"base_weights":[6.5186336E-3,1.2095149E-2,-6.952367E-3],"categories":[],"categories_nodes":[],"categories_segments":[],"categories_sizes":[],"default_left":[0,0,0],"id":36,"left_children":[1,-1,-1],"loss_changes":[3.822761E1,0E0,0E0],"parents":[2147483647,0,0],"right_children":[2,-1,-1],"split_conditions":[3E0,1.2095149E-2,-6.952367E-3],"split_indices":[2,0,0],"split_type":[0,0,0],"sum_hessian":[4.3286087E1,1.5681039E1,2.7605047E1],"tree_param":{"num_deleted":"0","num_feature":"4","num_nodes":"3","size_leaf_vector":"1"}},{"base_weights":[2.745455E-2,-6.698666E-3,3.4345847E-1,1.1229358E0,-6.0789156E-1,1.2115404E-2,1.5313918E-4,6.948654E-5,-6.6918414E-3],"categories":[],"categories_nodes":[],"categories_segments":[],"categories_sizes":[],"default_left":[0,0,0,0,0,0,0,0,0],"id":37,"left_children":[1,-1,3,5,7,-1,-1,-1,-1],"loss_changes":[1.000504E1,0E0,2.3809784E1,1.6982536E0,5.5839586E-1,0E0,0E0,0E0,0E0],"parents":[2147483647,0,0,2,2,3,3,4,4],"right_children":[2,-1,4,6,8,-1,-1,-1,-1],"split_conditions":[3E0,-6.698666E-3,5.1E0,1.8E0,6.2E0,1.2115404E-2,1.5313918E-4,6.948654E-5,-6.6918414E-3],"split_indices":[2,0,2,3,0,0,0,0,0],"split_type":[0,0,0,0,0,0,0,0,0],"sum_hessian":[4.3359848E1,1.3172495E1,3.0187353E1,1.6493359E1,1.3693995E1,1.518482E1,1.3085384E0,1.321759E0,1.2372236E1],"tree_param":{"num_deleted":"0","num_feature":"4","num_nodes":"9","size_leaf_vector":"1"}},{"base_weights":[2.7367363E-3,-5.9472823E-1,1.2067005E-2,-6.937443E-3,5.5440376E-3],"categories":[],"categories_nodes":[],"categories_segments":[],"categories_sizes":[],"default_left":[0,0,0,0,0],"id":38,"left_children":[1,3,-1,-1,-1],"loss_changes":[3.0934385E1,3.655264E0,0E0,0E0,0E0],"parents":[2147483647,0,0,1,1],"right_children":[2,4,-1,-1,-1],"split_conditions":[1.8E0,5.1E0,1.2067005E-2,-6.937443E-3,5.5440376E-3],"split_indices":[3,2,0,0,0],"split_type":[0,0,0,0,0],"sum_hessian":[4.1006985E1,2.7744732E1,1.3262251E1,2.5908583E1,1.8361493E0],"tree_param":{"num_deleted":"0","num_feature":"4","num_nodes":"5","size_leaf_vector":"1"}},{"base_weights":[-2.258599E-2,1.1864389E-2,-6.911917E-3],"categories":[],"categories_nodes":[],"categories_segments":[],"categories_sizes":[],"default_left":[0,0,0],"id":39,"left_children":[1,-1,-1],"loss_changes":[3.3664173E1,0E0,0E0],"parents":[2147483647,0,0],"right_children":[2,-1,-1],"split_conditions":[3E0,1.1864389E-2,-6.911917E-3],"split_indices":[2,0,0],"split_type":[0,0,0],"sum_hessian":[3.9630505E1,1.3836242E1,2.5794264E1],"tree_param":{"num_deleted":"0","num_feature":"4","num_nodes":"3","size_leaf_vector":"1"}},{"base_weights":[4.0462114E-2,-6.7040776E-3,3.8413933E-1,1.1125346E0,-5.976732E-1,1.2007403E-2,2.0488651E-5,-9.93752E-4,-6.6114343E-3],"categories":[],"categories_nodes":[],"categories_segments":[],"categories_sizes":[],"default_left":[0,0,0,0,0,0,0,0,0],"id":40,"left_children":[1,-1,3,5,7,-1,-1,-1,-1],"loss_changes":[1.1202947E1,0E0,2.2717463E1,1.7657814E0,3.702469E-1,0E0,0E0,0E0,0E0],"parents":[2147483647,0,0,2,2,3,3,4,4],"right_children":[2,-1,4,6,8,-1,-1,-1,-1],"split_conditions":[3E0,-6.7040776E-3,1.8E0,5.1E0,6E0,1.2007403E-2,2.0488651E-5,-9.93752E-4,-6.6114343E-3],"split_indices":[2,0,3,2,0,0,0,0,0],"split_type":[0,0,0,0,0,0,0,0,0],"sum_hessian":[4.3801384E1,1.39650545E1,2.983633E1,1.705229E1,1.27840395E1,1.5722203E1,1.3300871E0,1.7342585E0,1.1049782E1],"tree_param":{"num_deleted":"0","num_feature":"4","num_nodes":"9","size_leaf_vector":"1"}},{"base_weights":[-4.974214E-2,-6.275271E-1,1.1261707E-2,-6.9223833E-3,3.8752952E-3],"categories":[],"categories_nodes":[],"categories_segments":[],"categories_sizes":[],"default_left":[0,0,0,0,0],"id":41,"left_children":[1,3,-1,-1,-1],"loss_changes":[2.9470394E1,2.1750774E0,0E0,0E0,0E0],"parents":[2147483647,0,0,1,1],"right_children":[2,4,-1,-1,-1],"split_conditions":[1.8E0,5.1E0,1.1261707E-2,-6.9223833E-3,3.8752952E-3],"split_indices":[3,2,0,0,0],"split_type":[0,0,0,0,0],"sum_hessian":[4.1335358E1,2.8029438E1,1.3305921E1,2.6648586E1,1.3808517E0],"tree_param":{"num_deleted":"0","num_feature":"4","num_nodes":"5","size_leaf_vector":"1"}},{"base_weights":[4.274804E-2,1.1829981E-2,-6.884696E-3],"categories":[],"categories_nodes":[],"categories_segments":[],"categories_sizes":[],"default_left":[0,0,0],"id":42,"left_children":[1,-1,-1],"loss_changes":[3.589387E1,0E0,0E0],"parents":[2147483647,0,0],"right_children":[2,-1,-1],"split_conditions":[3E0,1.1829981E-2,-6.884696E-3],"split_indices":[2,0,0],"split_type":[0,0,0],"sum_hessian":[4.1073204E1,1.5806668E1,2.5266533E1],"tree_param":{"num_deleted":"0","num_feature":"4","num_nodes":"3","size_leaf_vector":"1"}},{"base_weights":[-3.0760516E-3,-6.6536954E-3,3.0429608E-1,1.1856777E-2,-6.1375535E-1,-2.7664106E-5,-6.707895E-3],"categories":[],"categories_nodes":[],"categories_segments":[],"categories_sizes":[],"default_left":[0,0,0,0,0,0,0],"id":43,"left_children":[1,-1,3,-1,5,-1,-1],"loss_changes":[9.035508E0,0E0,2.526325E1,0E0,5.3866625E-1,0E0,0E0],"parents":[2147483647,0,0,2,2,4,4],"right_children":[2,-1,4,-1,6,-1,-1],"split_conditions":[3E0,-6.6536954E-3,4.9E0,1.1856777E-2,2.6E0,-2.7664106E-5,-6.707895E-3],"split_indices":[2,0,2,0,1,0,0],"split_type":[0,0,0,0,0,0,0],"sum_hessian":[4.2390553E1,1.3068089E1,2.9322464E1,1.4811278E1,1.4511186E1,1.3284483E0,1.3182737E1],"tree_param":{"num_deleted":"0","num_feature":"4","num_nodes":"7","size_leaf_vector":"1"}},{"base_weights":[-1.937714E-2,-5.936079E-1,1.1194138E-2,-6.898962E-3,5.468537E-3],"categories":[],"categories_nodes":[],"categories_segments":[],"categories_sizes":[],"default_left":[0,0,0,0,0],"id":44,"left_children":[1,3,-1,-1,-1],"loss_changes":[2.8923592E1,3.6037703E0,0E0,0E0,0E0],"parents":[2147483647,0,0,1,1],"right_children":[2,4,-1,-1,-1],"split_conditions":[1.8E0,5.1E0,1.1194138E-2,-6.898962E-3,5.468537E-3],"split_indices":[3,2,0,0,0],"split_type":[0,0,0,0,0],"sum_hessian":[4.2214333E1,2.838171E1,1.38326235E1,2.6536339E1,1.8453703E0],"tree_param":{"num_deleted":"0","num_feature":"4","num_nodes":"5","size_leaf_vector":"1"}},{"base_weights":[1.9722376E-2,1.1721513E-2,-6.8831136E-3],"categories":[],"categories_nodes":[],"categories_segments":[],"categories_sizes":[],"default_left":[0,0,0],"id":45,"left_children":[1,-1,-1],"loss_changes":[3.720554E1,0E0,0E0],"parents":[2147483647,0,0],"right_children":[2,-1,-1],"split_conditions":[3E0,1.1721513E-2,-6.8831136E-3],"split_indices":[2,0,0],"split_type":[0,0,0],"sum_hessian":[4.360856E1,1.6346586E1,2.726197E1],"tree_param":{"num_deleted":"0","num_feature":"4","num_nodes":"3","size_leaf_vector":"1"}},{"base_weights":[3.458068E-2,-6.6582225E-3,3.963195E-1,1.0390457E0,-5.7779694E-1,1.17087765E-2,-1.032702E-3,2.0551449E-4,-6.5214806E-3],"categories":[],"categories_nodes":[],"categories_segments":[],"categories_sizes":[],"default_left":[0,0,0,0,0,0,0,0,0],"id":46,"left_children":[1,-1,3,5,7,-1,-1,-1,-1],"loss_changes":[1.1033501E1,0E0,1.8542131E1,2.774765E0,5.487828E-1,0E0,0E0,0E0,0E0],"parents":[2147483647,0,0,2,2,3,3,4,4],"right_children":[2,-1,4,6,8,-1,-1,-1,-1],"split_conditions":[3E0,-6.6582225E-3,5.1E0,1.8E0,6.1E0,1.17087765E-2,-1.032702E-3,2.0551449E-4,-6.5214806E-3],"split_indices":[2,0,2,3,0,0,0,0,0],"split_type":[0,0,0,0,0,0,0,0,0],"sum_hessian":[4.1506702E1,1.3849849E1,2.7656855E1,1.6622562E1,1.1034292E1,1.4880262E1,1.7423007E0,1.2995577E0,9.734735E0],"tree_param":{"num_deleted":"0","num_feature":"4","num_nodes":"9","size_leaf_vector":"1"}},{"base_weights":[1.4087479E-2,-6.55126E-1,1.127395E-2,-6.8763145E-3,-2.2708351E-5],"categories":[],"categories_nodes":[],"categories_segments":[],"categories_sizes":[],"default_left":[0,0,0,0,0],"id":47,"left_children":[1,3,-1,-1,-1],"loss_changes":[3.330616E1,5.9123707E-1,0E0,0E0,0E0],"parents":[2147483647,0,0,1,1],"right_children":[2,4,-1,-1,-1],"split_conditions":[5E0,4.9E0,1.127395E-2,-6.8763145E-3,-2.2708351E-5],"split_indices":[2,2,0,0,0],"split_type":[0,0,0,0,0],"sum_hessian":[4.27125E1,2.6933949E1,1.577855E1,2.5605774E1,1.3281751E0],"tree_param":{"num_deleted":"0","num_feature":"4","num_nodes":"5","size_leaf_vector":"1"}},{"base_weights":[-4.966432E-2,1.1480213E-2,-6.859665E-3],"categories":[],"categories_nodes":[],"categories_segments":[],"categories_sizes":[],"default_left":[0,0,0],"id":48,"left_children":[1,-1,-1],"loss_changes":[3.2898125E1,0E0,0E0],"parents":[2147483647,0,0],"right_children":[2,-1,-1],"split_conditions":[3E0,1.1480213E-2,-6.859665E-3],"split_indices":[2,0,0],"split_type":[0,0,0],"sum_hessian":[4.113495E1,1.3992753E1,2.7142197E1],"tree_param":{"num_deleted":"0","num_feature":"4","num_nodes":"3","size_leaf_vector":"1"}},{"base_weights":[-3.185931E-4,-6.5924027E-3,3.1783453E-1,1.057128E0,-5.881657E-1,1.151595E-2,1.0195555E-4,1.1027536E-4,-6.551465E-3],"categories":[],"categories_nodes":[],"categories_segments":[],"categories_sizes":[],"default_left":[0,0,0,0,0,0,0,0,0],"id":49,"left_children":[1,-1,3,5,7,-1,-1,-1,-1],"loss_changes":[8.718018E0,0E0,1.9406687E1,1.5509968E0,5.3878355E-1,0E0,0E0,0E0,0E0],"parents":[2147483647,0,0,2,2,3,3,4,4],"right_children":[2,-1,4,6,8,-1,-1,-1,-1],"split_conditions":[1.9E0,-6.5924027E-3,5.1E0,1.8E0,6.2E0,1.151595E-2,1.0195555E-4,1.1027536E-4,-6.551465E-3],"split_indices":[2,0,2,3,0,0,0,0,0],"split_type":[0,0,0,0,0,0,0,0,0],"sum_hessian":[3.958657E1,1.2541008E1,2.7045563E1,1.4801103E1,1.2244461E1,1.3484403E1,1.3166997E0,1.3151172E0,1.0929344E1],"tree_param":{"num_deleted":"0","num_feature":"4","num_nodes":"9","size_leaf_vector":"1"}},{"base_weights":[1.7361756E-2,-6.8339068E-3,1.0736848E0,5.539554E-1,1.15591325E-2,7.5124786E-3,1.9105258E-3],"categories":[],"categories_nodes":[],"categories_segments":[],"categories_sizes":[],"default_left":[0,0,0,0,0,0,0],"id":50,"left_children":[1,-1,3,5,-1,-1,-1],"loss_changes":[3.2029755E1,0E0,9.690666E-2,1.6267681E-1,0E0,0E0,0E0],"parents":[2147483647,0,0,2,2,3,3],"right_children":[2,-1,4,6,-1,-1,-1],"split_conditions":[4.8E0,-6.8339068E-3,5.1E0,2.9E0,1.15591325E-2,7.5124786E-3,1.9105258E-3],"split_indices":[2,0,2,1,0,0,0],"split_type":[0,0,0,0,0,0,0],"sum_hessian":[4.1279278E1,2.5028625E1,1.625065E1,3.2767222E0,1.2973929E1,1.4294775E0,1.8472449E0],"tree_param":{"num_deleted":"0","num_feature":"4","num_nodes":"7","size_leaf_vector":"1"}},{"base_weights":[6.5782033E-3,1.1434719E-2,-6.8300185E-3],"categories":[],"categories_nodes":[],"categories_segments":[],"categories_sizes":[],"default_left":[0,0,0],"id":51,"left_children":[1,-1,-1],"loss_changes":[3.4246426E1,0E0,0E0],"parents":[2147483647,0,0],"right_children":[2,-1,-1],"split_conditions":[3E0,1.1434719E-2,-6.8300185E-3],"split_indices":[2,0,0],"split_type":[0,0,0],"sum_hessian":[4.168663E1,1.5490164E1,2.6196466E1],"tree_param":{"num_deleted":"0","num_feature":"4","num_nodes":"3","size_leaf_vector":"1"}},{"base_weights":[-6.676528E-2,2.4098587E-1,-6.650087E-3,-6.5869885E-3,1.0392326E0,1.136248E-2,5.7160778E-5],"categories":[],"categories_nodes":[],"categories_segments":[],"categories_sizes":[],"default_left":[0,0,0,0,0,0,0],"id":52,"left_children":[1,3,-1,-1,5,-1,-1],"loss_changes":[7.840584E0,2.0994215E1,0E0,0E0,1.5348682E0,0E0,0E0],"parents":[2147483647,0,0,1,1,4,4],"right_children":[2,4,-1,-1,6,-1,-1],"split_conditions":[1.8E0,3E0,-6.650087E-3,-6.5869885E-3,5.1E0,1.136248E-2,5.7160778E-5],"split_indices":[3,2,0,0,2,0,0],"split_type":[0,0,0,0,0,0,0],"sum_hessian":[4.071594E1,2.7279745E1,1.3436194E1,1.2907185E1,1.4372561E1,1.3048325E1,1.3242366E0],"tree_param":{"num_deleted":"0","num_feature":"4","num_nodes":"7","size_leaf_vector":"1"}},{"base_weights":[-5.8696833E-2,-6.223342E-1,1.1458048E-2,-6.8414407E-3,3.6926072E-3],"categories":[],"categories_nodes":[],"categories_segments":[],"categories_sizes":[],"default_left":[0,0,0,0,0],"id":53,"left_children":[1,3,-1,-1,-1],"loss_changes":[2.9806017E1,2.081565E0,0E0,0E0,0E0],"parents":[2147483647,0,0,1,1],"right_children":[2,4,-1,-1,-1],"split_conditions":[1.8E0,5.1E0,1.1458048E-2,-6.8414407E-3,3.6926072E-3],"split_indices":[3,2,0,0,0],"split_type":[0,0,0,0,0],"sum_hessian":[4.185293E1,2.8840544E1,1.3012386E1,2.7440151E1,1.4003911E0],"tree_param":{"num_deleted":"0","num_feature":"4","num_nodes":"5","size_leaf_vector":"1"}},{"base_weights":[1.9902516E-2,1.1336303E-2,-6.80852E-3],"categories":[],"categories_nodes":[],"categories_segments":[],"categories_sizes":[],"default_left":[0,0,0],"id":54,"left_children":[1,-1,-1],"loss_changes":[3.441805E1,0E0,0E0],"parents":[2147483647,0,0],"right_children":[2,-1,-1],"split_conditions":[3E0,1.1336303E-2,-6.80852E-3],"split_indices":[2,0,0],"split_type":[0,0,0],"sum_hessian":[4.2111317E1,1.6024857E1,2.608646E1],"tree_param":{"num_deleted":"0","num_feature":"4","num_nodes":"3","size_leaf_vector":"1"}},{"base_weights":[-1.8172337E-2,-6.5933308E-3,3.2213238E-1,1.07983695E-2,-5.887264E-1,-1.3019932E-3,-6.4921733E-3],"categories":[],"categories_nodes":[],"categories_segments":[],"categories_sizes":[],"default_left":[0,0,0,0,0,0,0],"id":55,"left_children":[1,-1,3,-1,5,-1,-1],"loss_changes":[9.243878E0,0E0,1.9761753E1,0E0,2.8247166E-1,0E0,0E0],"parents":[2147483647,0,0,2,2,4,4],"right_children":[2,-1,4,-1,6,-1,-1],"split_conditions":[3E0,-6.5933308E-3,4.9E0,1.07983695E-2,1.8E0,-1.3019932E-3,-6.4921733E-3],"split_indices":[2,0,2,0,3,0,0],"split_type":[0,0,0,0,0,0,0],"sum_hessian":[4.039275E1,1.3680374E1,2.6712376E1,1.4480856E1,1.2231521E1,1.7929755E0,1.0438545E1],"tree_param":{"num_deleted":"0","num_feature":"4","num_nodes":"7","size_leaf_vector":"1"}},{"base_weights":[5.754738E-2,-6.8050516E-3,1.072441E0,2.3110604E-3,1.1472926E-2],"categories":[],"categories_nodes":[],"categories_segments":[],"categories_sizes":[],"default_left":[0,0,0,0,0],"id":56,"left_children":[1,-1,3,-1,-1],"loss_changes":[3.339264E1,0E0,9.1550636E-1,0E0,0E0],"parents":[2147483647,0,0,2,2],"right_children":[2,-1,4,-1,-1],"split_conditions":[4.9E0,-6.8050516E-3,1.6E0,2.3110604E-3,1.1472926E-2],"split_indices":[2,0,3,0,0],"split_type":[0,0,0,0,0],"sum_hessian":[4.2605988E1,2.4858112E1,1.7747875E1,1.7839326E0,1.5963942E1],"tree_param":{"num_deleted":"0","num_feature":"4","num_nodes":"5","size_leaf_vector":"1"}},{"base_weights":[3.405416E-2,1.1219765E-2,-6.77729E-3],"categories":[],"categories_nodes":[],"categories_segments":[],"categories_sizes":[],"default_left":[0,0,0],"id":57,"left_children":[1,-1,-1],"loss_changes":[3.34504E1,0E0,0E0],"parents":[2147483647,0,0],"right_children":[2,-1,-1],"split_conditions":[3E0,1.1219765E-2,-6.77729E-3],"split_indices":[2,0,0],"split_type":[0,0,0],"sum_hessian":[4.121526E1,1.6072704E1,2.5142555E1],"tree_param":{"num_deleted":"0","num_feature":"4","num_nodes":"3","size_leaf_vector":"1"}},{"base_weights":[1.2397392E-2,-6.5855025E-3,3.5383493E-1,9.9748737E-1,-5.774181E-1,1.1232331E-2,-1.0345638E-3,1.4113724E-4,-6.467149E-3],"categories":[],"categories_nodes":[],"categories_segments":[],"categories_sizes":[],"default_left":[0,0,0,0,0,0,0,0,0],"id":58,"left_children":[1,-1,3,5,7,-1,-1,-1,-1],"loss_changes":[1.0209296E1,0E0,1.8265257E1,2.582777E0,5.294914E-1,0E0,0E0,0E0,0E0],"parents":[2147483647,0,0,2,2,3,3,4,4],"right_children":[2,-1,4,6,8,-1,-1,-1,-1],"split_conditions":[3E0,-6.5855025E-3,5.1E0,1.8E0,6.2E0,1.1232331E-2,-1.0345638E-3,1.4113724E-4,-6.467149E-3],"split_indices":[2,0,2,3,0,0,0,0,0],"split_type":[0,0,0,0,0,0,0,0,0],"sum_hessian":[4.2548042E1,1.403654E1,2.85115E1,1.6817001E1,1.16945E1,1.5074948E1,1.7420523E0,1.3098328E0,1.0384667E1],"tree_param":{"num_deleted":"0","num_feature":"4","num_nodes":"9","size_leaf_vector":"1"}},{"base_weights":[-1.0217485E-1,-6.7918533E-3,1.0002416E0,1.990323E-3,1.1045793E-2],"categories":[],"categories_nodes":[],"categories_segments":[],"categories_sizes":[],"default_left":[0,0,0,0,0],"id":59,"left_children":[1,-1,3,-1,-1],"loss_changes":[2.5856821E1,0E0,9.507837E-1,0E0,0E0],"parents":[2147483647,0,0,2,2],"right_children":[2,-1,4,-1,-1],"split_conditions":[4.9E0,-6.7918533E-3,1.7E0,1.990323E-3,1.1045793E-2],"split_indices":[2,0,3,0,0],"split_type":[0,0,0,0,0],"sum_hessian":[3.858063E1,2.5577267E1,1.3003363E1,1.8332685E0,1.1170094E1],"tree_param":{"num_deleted":"0","num_feature":"4","num_nodes":"5","size_leaf_vector":"1"}}]},"name":"gbtree"},"learner_model_param":{"base_score":"5E-1","boost_from_average":"1","num_class":"3","num_feature":"4","num_target":"1"},"objective":{"name":"multi:softmax","softmax_multiclass_param":{"num_class":"3"}}},"version":[2,1,3]}